<?xml version="1.0"?>
<opencv_storage>
<cascade>
  <stageType>BOOST</stageType>
  <featureType>LBP</featureType>
  <height>33</height>
  <width>33</width>
  <stageParams>
    <boostType>GAB</boostType>
    <minHitRate>9.9864178895950317e-01</minHitRate>
    <maxFalseAlarm>4.9159362912178040e-01</maxFalseAlarm>
    <weightTrimRate>9.4999999999999996e-01</weightTrimRate>
    <maxDepth>1</maxDepth>
    <maxWeakCount>100</maxWeakCount></stageParams>
  <imgParams>
    <imgScaleLimit>5.0000000000000000e-01</imgScaleLimit>
    <imgScaleFactor>1.1180339887499999e+00</imgScaleFactor>
    <imgStepFactor>1.</imgStepFactor>
    <imgRoundRate>2.</imgRoundRate></imgParams>
  <featureParams>
    <maxCatCount>256</maxCatCount>
    <featSize>1</featSize></featureParams>
  <stageNum>23</stageNum>
  <stages>
    <!-- stage 0 -->
    <_>
      <maxWeakCount>12</maxWeakCount>
      <stageThreshold>-1.5398463010787964e+00</stageThreshold>
      <weakClassifiers>
        <_>
          <internalNodes>
            0 -1 386 -800001808 -176816683 1077997904 -705301673
            -35782657 -33819218 -112066561 -1</internalNodes>
          <leafValues>
            -2.5242385268211365e-01 8.7554323673248291e-01</leafValues></_>
        <_>
          <internalNodes>
            0 -1 40 -29164016 -206373936 -5439631 -9175054 -548342976
            -9373840 -539888043 -526473</internalNodes>
          <leafValues>
            -4.6370849013328552e-01 6.0538089275360107e-01</leafValues></_>
        <_>
          <internalNodes>
            0 -1 609 -570425634 -574750727 -822083841 1174399963
            1174339804 -1094401 469566159 1576880095</internalNodes>
          <leafValues>
            -4.1456058621406555e-01 5.2987533807754517e-01</leafValues></_>
        <_>
          <internalNodes>
            0 -1 576 -51380494 1155333886 -33751557 -595656845
            -521080592 -2140078992 -991430658 -387646722</internalNodes>
          <leafValues>
            -4.6353340148925781e-01 3.7151184678077698e-01</leafValues></_>
        <_>
          <internalNodes>
            0 -1 133 -12060930 998617070 -1115815937 758089261
            1360459774 -8437830 1832910575 2138570583</internalNodes>
          <leafValues>
            -3.4928825497627258e-01 4.2099928855895996e-01</leafValues></_>
        <_>
          <internalNodes>
            0 -1 89 -536870929 -419430401 -268437530 -486604810 -32969
            1710620543 -268436156 -185077897</internalNodes>
          <leafValues>
            -4.4330742955207825e-01 3.0815508961677551e-01</leafValues></_>
        <_>
          <internalNodes>
            0 -1 309 783957815 -1896939566 -129 -294211851 1005533053
            -6291458 -12894219 753202677</internalNodes>
          <leafValues>
            -5.6866455078125000e-01 1.6956736147403717e-01</leafValues></_>
        <_>
          <internalNodes>
            0 -1 767 -25272971 -65673 -16513 -360961 -1384243339 -129
            -66323 -290562763</internalNodes>
          <leafValues>
            -3.4989243745803833e-01 2.9108971357345581e-01</leafValues></_>
        <_>
          <internalNodes>
            0 -1 853 -528401 784330749 -66384 1627324338 -8390658
            1877344255 -17311760 1962409975</internalNodes>
          <leafValues>
            -4.9367481470108032e-01 1.9568699598312378e-01</leafValues></_>
        <_>
          <internalNodes>
            0 -1 8 -806357709 -827658770 1879047607 -571510942 88301495
            205979647 343364944 1173747271</internalNodes>
          <leafValues>
            -3.8375902175903320e-01 2.4042996764183044e-01</leafValues></_>
        <_>
          <internalNodes>
            0 -1 606 209665847 784265087 -272631297 -1098973249
            1040146293 -131 -163851 -16974731</internalNodes>
          <leafValues>
            -3.2647183537483215e-01 2.7393060922622681e-01</leafValues></_>
        <_>
          <internalNodes>
            0 -1 644 74473269 -1093238787 -8193 -1677824009 -1090699307
            -2752528 -269722115 720903540</internalNodes>
          <leafValues>
            -4.2439067363739014e-01 2.1005626022815704e-01</leafValues></_></weakClassifiers></_>
    <!-- stage 1 -->
    <_>
      <maxWeakCount>16</maxWeakCount>
      <stageThreshold>-1.4742828607559204e+00</stageThreshold>
      <weakClassifiers>
        <_>
          <internalNodes>
            0 -1 393 575644194 -713838665 587072035 -33562697 -1196113
            -1075914769 -84152577 -4194305</internalNodes>
          <leafValues>
            -2.3583769798278809e-01 8.3410549163818359e-01</leafValues></_>
        <_>
          <internalNodes>
            0 -1 167 -11141168 -110035408 -3 -2359316 1968306032
            -9044140 -9043969 -525321</internalNodes>
          <leafValues>
            -3.3044421672821045e-01 6.0815918445587158e-01</leafValues></_>
        <_>
          <internalNodes>
            0 -1 499 -16777217 -1107361795 -1 -1090715649 -515 -1
            -197123 -1392967692</internalNodes>
          <leafValues>
            -3.0721262097358704e-01 5.3665596246719360e-01</leafValues></_>
        <_>
          <internalNodes>
            0 -1 777 -595591996 1077210364 -805372419 -994263618
            -321596208 -590023307 -16916485 -318767109</internalNodes>
          <leafValues>
            -3.9839410781860352e-01 3.6735931038856506e-01</leafValues></_>
        <_>
          <internalNodes>
            0 -1 611 -638128402 -713199982 -293679361 -542389346
            -1527709463 -65027 595263723 2147434567</internalNodes>
          <leafValues>
            -3.5086876153945923e-01 3.6342108249664307e-01</leafValues></_>
        <_>
          <internalNodes>
            0 -1 56 -8325 -1325400449 -352915598 -1875710350 2004221237
            1517813623 -277754032 -193471369</internalNodes>
          <leafValues>
            -4.3265223503112793e-01 2.5644212961196899e-01</leafValues></_>
        <_>
          <internalNodes>
            0 -1 150 -616566913 -1083220161 1072327871 839974770
            -835236524 -8749227 -286139308 2086731346</internalNodes>
          <leafValues>
            -4.4178739190101624e-01 2.0422217249870300e-01</leafValues></_>
        <_>
          <internalNodes>
            0 -1 196 1578362548 -34577732 1052393151 1062022318
            1995716095 -4197379 2113765371 1772315699</internalNodes>
          <leafValues>
            -3.0897480249404907e-01 2.8145211935043335e-01</leafValues></_>
        <_>
          <internalNodes>
            0 -1 892 -335548553 784269183 -9 -901840918 -134217865 -17
            -169888172 -120258570</internalNodes>
          <leafValues>
            -3.1055065989494324e-01 2.9589399695396423e-01</leafValues></_>
        <_>
          <internalNodes>
            0 -1 265 -1347732169 -1364787780 -33947657 -268632091
            -1342214281 -1342177289 536838133 1289526773</internalNodes>
          <leafValues>
            -4.4441333413124084e-01 1.9468113780021667e-01</leafValues></_>
        <_>
          <internalNodes>
            0 -1 6 -1048577 -276889713 -16777221 -1048590 2013259775
            268429311 1409283827 -436208385</internalNodes>
          <leafValues>
            -2.1622525155544281e-01 3.8627502322196960e-01</leafValues></_>
        <_>
          <internalNodes>
            0 -1 536 741346933 1052650879 -50179 -1073987586 2145140592
            -8913410 2147358716 1066407028</internalNodes>
          <leafValues>
            -4.4117990136146545e-01 1.8197509646415710e-01</leafValues></_>
        <_>
          <internalNodes>
            0 -1 589 -272650713 -1359233101 -315585 -352323777
            1039732533 -1342177409 -55091852 -50356266</internalNodes>
          <leafValues>
            -2.7256694436073303e-01 2.8408756852149963e-01</leafValues></_>
        <_>
          <internalNodes>
            0 -1 882 -50701227 536481112 -268435465 998186845
            -1040560559 -33555073 -25231364 775585631</internalNodes>
          <leafValues>
            -3.5379758477210999e-01 2.2743606567382812e-01</leafValues></_>
        <_>
          <internalNodes>
            0 -1 858 -285218037 615442286 -687949134 581894023
            -268550221 -269549703 -405314364 1088946100</internalNodes>
          <leafValues>
            -4.9777150154113770e-01 1.4320676028728485e-01</leafValues></_>
        <_>
          <internalNodes>
            0 -1 27 -893394097 280117231 -13422793 2013248020 89134881
            -1124114955 -822739679 -603984045</internalNodes>
          <leafValues>
            -2.3208594322204590e-01 3.1118550896644592e-01</leafValues></_></weakClassifiers></_>
    <!-- stage 2 -->
    <_>
      <maxWeakCount>21</maxWeakCount>
      <stageThreshold>-1.3653395175933838e+00</stageThreshold>
      <weakClassifiers>
        <_>
          <internalNodes>
            0 -1 366 -2118981 -74207521 -1115837781 -2119510 -2113621
            -20821 -8410454 -268465494</internalNodes>
          <leafValues>
            -1.2594187259674072e-01 8.6346495151519775e-01</leafValues></_>
        <_>
          <internalNodes>
            0 -1 396 1068971317 1069236159 -1073741833 -67 1073709055
            -1310721 -16385 -513</internalNodes>
          <leafValues>
            -2.2099164128303528e-01 6.9326400756835938e-01</leafValues></_>
        <_>
          <internalNodes>
            0 -1 721 -591069442 1352466431 -188946434 -43679745
            -858460932 -51019783 -319750402 -67239941</internalNodes>
          <leafValues>
            -3.1029671430587769e-01 4.8079830408096313e-01</leafValues></_>
        <_>
          <internalNodes>
            0 -1 88 -1089 -69599233 -269816254 -232601038 -11293164
            -17356991 1593232704 -9177998</internalNodes>
          <leafValues>
            -3.8191667199134827e-01 3.0374395847320557e-01</leafValues></_>
        <_>
          <internalNodes>
            0 -1 192 -178915620 959554222 -4325377 959293967 -906500101
            -15286351 2050971647 2132797935</internalNodes>
          <leafValues>
            -2.9787150025367737e-01 3.5727015137672424e-01</leafValues></_>
        <_>
          <internalNodes>
            0 -1 374 -25756331 -1078132747 -65537 -4391043 -528395
            -16449 -3 -1363642511</internalNodes>
          <leafValues>
            -3.1621819734573364e-01 2.6571884751319885e-01</leafValues></_>
        <_>
          <internalNodes>
            0 -1 852 -838873349 1779367350 -1185104 1088614002
            -402725442 -2068194081 -705313584 1086453718</internalNodes>
          <leafValues>
            -4.5038118958473206e-01 1.8823887407779694e-01</leafValues></_>
        <_>
          <internalNodes>
            0 -1 34 -893720669 137749181 -575342731 -671618293
            1180914448 8177431 1743869008 -176687261</internalNodes>
          <leafValues>
            -2.8705799579620361e-01 2.9016405344009399e-01</leafValues></_>
        <_>
          <internalNodes>
            0 -1 364 783957815 -1368196137 -10241 -1360199683 1048403317
            -1359036417 -1745295 1828486481</internalNodes>
          <leafValues>
            -5.3543782234191895e-01 1.4566178619861603e-01</leafValues></_>
        <_>
          <internalNodes>
            0 -1 827 -17043945 444580045 -285286465 748941055 -28507124
            206335757 -1430796660 -363331601</internalNodes>
          <leafValues>
            -2.5455665588378906e-01 3.0581784248352051e-01</leafValues></_>
        <_>
          <internalNodes>
            0 -1 740 -2009573068 -541454991 -1075838987 -1111605377
            794722301 -1076330498 1019018751 788139324</internalNodes>
          <leafValues>
            -4.3482899665832520e-01 1.7240086197853088e-01</leafValues></_>
        <_>
          <internalNodes>
            0 -1 325 -428350862 -51331884 -466575019 -570673539
            -254214448 -579043404 -350947376 -3883312</internalNodes>
          <leafValues>
            -3.2326686382293701e-01 2.3558256030082703e-01</leafValues></_>
        <_>
          <internalNodes>
            0 -1 696 1526327466 497192537 -1561575692 334525299
            1993548030 1023360895 -58847237 2146392019</internalNodes>
          <leafValues>
            -3.1031382083892822e-01 2.3135882616043091e-01</leafValues></_>
        <_>
          <internalNodes>
            0 -1 301 -1350598857 -1360069714 -268435457 -420577300
            2147200893 -1075838987 -578816524 -16986636</internalNodes>
          <leafValues>
            -2.7579259872436523e-01 2.6087138056755066e-01</leafValues></_>
        <_>
          <internalNodes>
            0 -1 69 -268701897 -282345617 -268445710 -9503074 771719167
            268435455 2013160850 1954021367</internalNodes>
          <leafValues>
            -3.1862631440162659e-01 2.2237293422222137e-01</leafValues></_>
        <_>
          <internalNodes>
            0 -1 257 -1896667209 -1373474846 -1342231619 -157495628
            -432062634 -327155882 -989855883 1827991012</internalNodes>
          <leafValues>
            -4.5290493965148926e-01 1.4394894242286682e-01</leafValues></_>
        <_>
          <internalNodes>
            0 -1 825 -671088649 2147483547 -301990150 -1300299782
            1610595660 2139094895 -268462100 -218366465</internalNodes>
          <leafValues>
            -2.1452075242996216e-01 3.0546283721923828e-01</leafValues></_>
        <_>
          <internalNodes>
            0 -1 667 -1531652619 2126036847 -1359036449 -1282823
            -1141096515 -37748993 -1099667537 788207131</internalNodes>
          <leafValues>
            -2.5823473930358887e-01 2.4037794768810272e-01</leafValues></_>
        <_>
          <internalNodes>
            0 -1 660 -822137233 -281643017 -293933065 -352649220
            -939583915 -277528737 -16910852 -589841</internalNodes>
          <leafValues>
            -2.2667495906352997e-01 3.1510272622108459e-01</leafValues></_>
        <_>
          <internalNodes>
            0 -1 917 -38278329 -2139173723 -285452233 -1036603722
            -134809676 1660417988 -527948 -386603077</internalNodes>
          <leafValues>
            -2.4466685950756073e-01 2.4656453728675842e-01</leafValues></_>
        <_>
          <internalNodes>
            0 -1 281 1465119500 833647408 1052719069 -570573227
            380645689 -1191561539 1307916603 162376253</internalNodes>
          <leafValues>
            -2.9860562086105347e-01 2.2042144834995270e-01</leafValues></_></weakClassifiers></_>
    <!-- stage 3 -->
    <_>
      <maxWeakCount>25</maxWeakCount>
      <stageThreshold>-1.3678425550460815e+00</stageThreshold>
      <weakClassifiers>
        <_>
          <internalNodes>
            0 -1 385 -639784278 -214858053 765264427 -21841 -52844117
            -1073763441 -78271829 -21841</internalNodes>
          <leafValues>
            -1.5412870049476624e-01 8.1760752201080322e-01</leafValues></_>
        <_>
          <internalNodes>
            0 -1 243 1359083264 -115999841 1969848189 -15782645
            1967521791 -673796 -34210369 -1048673</internalNodes>
          <leafValues>
            -2.5603565573692322e-01 6.1531901359558105e-01</leafValues></_>
        <_>
          <internalNodes>
            0 -1 717 -16843275 -1376257 -268435713 -68099 -1885536275
            -8193 -135683 -268680075</internalNodes>
          <leafValues>
            -3.1561046838760376e-01 4.6432209014892578e-01</leafValues></_>
        <_>
          <internalNodes>
            0 -1 546 -328925186 -856887395 -319492235 -50397827
            -263924492 -51054601 1970599167 -56296193</internalNodes>
          <leafValues>
            -3.8907572627067566e-01 2.9054236412048340e-01</leafValues></_>
        <_>
          <internalNodes>
            0 -1 148 -33 -1310793 -2 -218431490 -411050385 -545783961
            -139530 -134743049</internalNodes>
          <leafValues>
            -2.7096003293991089e-01 3.3656993508338928e-01</leafValues></_>
        <_>
          <internalNodes>
            0 -1 9 -835717197 -1968509204 -1077985473 -1099998 235106231
            64487 1094137207 1601663735</internalNodes>
          <leafValues>
            -3.7074834108352661e-01 2.0948328077793121e-01</leafValues></_>
        <_>
          <internalNodes>
            0 -1 909 -296751565 140560174 -1361122177 1244718 532358912
            795959606 1056876216 -152572033</internalNodes>
          <leafValues>
            -2.7108702063560486e-01 2.7180168032646179e-01</leafValues></_>
        <_>
          <internalNodes>
            0 -1 423 -1694990987 -1179189391 -32781 -1080787171
            -285863939 -19 -291749891 706743349</internalNodes>
          <leafValues>
            -4.8955714702606201e-01 1.4724723994731903e-01</leafValues></_>
        <_>
          <internalNodes>
            0 -1 51 -218366161 806780683 -1369014410 443612978
            -143172844 678523764 -44581864 -11141566</internalNodes>
          <leafValues>
            -2.5603002309799194e-01 2.4675689637660980e-01</leafValues></_>
        <_>
          <internalNodes>
            0 -1 720 -730344452 430504958 2012630653 1035714295
            -193583876 -67422241 551632442 1005944527</internalNodes>
          <leafValues>
            -2.7353438735008240e-01 2.4483093619346619e-01</leafValues></_>
        <_>
          <internalNodes>
            0 -1 415 175646065 609812476 -1342210561 -1930100875
            -1099088267 -2097411 -1629544607 217069428</internalNodes>
          <leafValues>
            -6.4760780334472656e-01 9.7109049558639526e-02</leafValues></_>
        <_>
          <internalNodes>
            0 -1 786 -831058921 -1073906473 -16777217 -17040385
            -16812715 -16777345 -25624708 -21037519</internalNodes>
          <leafValues>
            -2.2942264378070831e-01 2.7505704760551453e-01</leafValues></_>
        <_>
          <internalNodes>
            0 -1 438 2012669842 271638386 -524744 533741392 -436867943
            -51348634 -2195886 1255228931</internalNodes>
          <leafValues>
            -3.4049639105796814e-01 1.7804364860057831e-01</leafValues></_>
        <_>
          <internalNodes>
            0 -1 845 -814223425 -849150212 -1477476404 -849285124
            -571484685 -1980043282 -789715776 -860619018</internalNodes>
          <leafValues>
            -2.2600804269313812e-01 2.4954946339130402e-01</leafValues></_>
        <_>
          <internalNodes>
            0 -1 215 -16781633 -25460742 -152043918 -88408110 25162831
            -563871929 1358886228 1962139603</internalNodes>
          <leafValues>
            -3.6187994480133057e-01 1.5809711813926697e-01</leafValues></_>
        <_>
          <internalNodes>
            0 -1 143 1827184913 -1394111654 610598399 -324015702
            1198469425 -1723397178 1073740555 -394268034</internalNodes>
          <leafValues>
            -2.8088489174842834e-01 2.1988758444786072e-01</leafValues></_>
        <_>
          <internalNodes>
            0 -1 263 -184549936 -158924850 1879047929 -340787229
            -134875168 -782960682 2013232907 1798305007</internalNodes>
          <leafValues>
            -2.2801335155963898e-01 2.5926610827445984e-01</leafValues></_>
        <_>
          <internalNodes>
            0 -1 146 -135313 -318996514 -268640544 -523973262
            -1342214289 1820184527 -1216381356 -18154538</internalNodes>
          <leafValues>
            -2.5977197289466858e-01 2.3379747569561005e-01</leafValues></_>
        <_>
          <internalNodes>
            0 -1 332 505967984 -1115885572 -1074004033 -1075970058
            2096644056 -536870915 1845182395 761477109</internalNodes>
          <leafValues>
            -4.4798710942268372e-01 1.2915341556072235e-01</leafValues></_>
        <_>
          <internalNodes>
            0 -1 676 217324851 788430718 -163841 -1567342593 1014988288
            -1367474193 2146991956 788020596</internalNodes>
          <leafValues>
            -5.7113832235336304e-01 8.8331125676631927e-02</leafValues></_>
        <_>
          <internalNodes>
            0 -1 621 1641147818 397826835 973048509 2142495666 5114345
            -337766229 -1166124305 -604158144</internalNodes>
          <leafValues>
            -2.0572380721569061e-01 2.7812331914901733e-01</leafValues></_>
        <_>
          <internalNodes>
            0 -1 391 1343418282 2160609 1437622068 -1149340121
            1299235765 213188026 1597321085 932490656</internalNodes>
          <leafValues>
            -3.7198677659034729e-01 1.3906860351562500e-01</leafValues></_>
        <_>
          <internalNodes>
            0 -1 817 -1497952425 791629695 -220268801 -1162313923
            -847315156 -1107300897 -570454796 -85013060</internalNodes>
          <leafValues>
            -2.1901677548885345e-01 2.4765403568744659e-01</leafValues></_>
        <_>
          <internalNodes>
            0 -1 768 -50331729 134215535 -50336068 846921662 -33730811
            1333657431 -360841236 1887335797</internalNodes>
          <leafValues>
            -3.8666477799415588e-01 1.3870677351951599e-01</leafValues></_>
        <_>
          <internalNodes>
            0 -1 18 -852496605 -887050262 -268736648 -9970134 1138363807
            1122496502 2010609109 -1040187418</internalNodes>
          <leafValues>
            -2.0852720737457275e-01 2.5201243162155151e-01</leafValues></_></weakClassifiers></_>
    <!-- stage 4 -->
    <_>
      <maxWeakCount>29</maxWeakCount>
      <stageThreshold>-1.3921823501586914e+00</stageThreshold>
      <weakClassifiers>
        <_>
          <internalNodes>
            0 -1 378 -536871953 -69734801 -213322804 -540023154
            -10485777 -1073745937 -70389874 -3151222</internalNodes>
          <leafValues>
            -3.4724321216344833e-02 8.3036172389984131e-01</leafValues></_>
        <_>
          <internalNodes>
            0 -1 340 1935667647 867940287 -604512257 -1 -1140987397
            -1077936193 -369361921 -1078984769</internalNodes>
          <leafValues>
            -1.4554986357688904e-01 7.1740293502807617e-01</leafValues></_>
        <_>
          <internalNodes>
            0 -1 587 -210244625 2012999663 -353112065 -202132773
            2000635263 -41976226 -84934657 -261</internalNodes>
          <leafValues>
            -2.0366628468036652e-01 5.0326776504516602e-01</leafValues></_>
        <_>
          <internalNodes>
            0 -1 699 -50594580 -863174988 -34078728 -51511570 -587209477
            -587661832 -218238982 -285475089</internalNodes>
          <leafValues>
            -2.9580438137054443e-01 3.0558389425277710e-01</leafValues></_>
        <_>
          <internalNodes>
            0 -1 256 -553914373 -50331649 -1078460737 -1323277
            -858468732 -856399876 1279937536 1289176643</internalNodes>
          <leafValues>
            -3.5668516159057617e-01 1.9371730089187622e-01</leafValues></_>
        <_>
          <internalNodes>
            0 -1 55 -540542081 -42471489 -35192900 -1338836334
            2138947349 -8912963 -551159526 -16386989</internalNodes>
          <leafValues>
            -2.6381593942642212e-01 2.5564688444137573e-01</leafValues></_>
        <_>
          <internalNodes>
            0 -1 598 540019988 -1135558668 -1074348033 -1082867851
            719069109 -50827280 -1375961123 1069292912</internalNodes>
          <leafValues>
            -4.0035068988800049e-01 1.6148287057876587e-01</leafValues></_>
        <_>
          <internalNodes>
            0 -1 219 -1399128271 -1124190599 -33801 -1677961739
            -1103364137 -16777225 -1762535683 -1879091851</internalNodes>
          <leafValues>
            -2.7663120627403259e-01 2.3013384640216827e-01</leafValues></_>
        <_>
          <internalNodes>
            0 -1 821 -824242857 2134793823 -17172481 1920139263
            -285377004 -1103167617 -21627268 2054352884</internalNodes>
          <leafValues>
            -3.3508670330047607e-01 1.7672370374202728e-01</leafValues></_>
        <_>
          <internalNodes>
            0 -1 505 -424154205 11270079 -280589 -2097153 1857681407
            230029311 -1007225089 -167906121</internalNodes>
          <leafValues>
            -1.9184638559818268e-01 3.0099582672119141e-01</leafValues></_>
        <_>
          <internalNodes>
            0 -1 28 -802106382 -567673097 -320036043 783232559 490143289
            -260745243 -428868233 2138210167</internalNodes>
          <leafValues>
            -3.0072671175003052e-01 1.9548124074935913e-01</leafValues></_>
        <_>
          <internalNodes>
            0 -1 895 -276893717 620752751 -134283722 -231800854
            -302092291 1222606831 -402655244 1962409947</internalNodes>
          <leafValues>
            -3.3443570137023926e-01 1.6557279229164124e-01</leafValues></_>
        <_>
          <internalNodes>
            0 -1 302 -1371537545 -420548610 -67375149 -17899554
            2122276861 -1346373633 352262004 -50399244</internalNodes>
          <leafValues>
            -2.3016171157360077e-01 2.2107978165149689e-01</leafValues></_>
        <_>
          <internalNodes>
            0 -1 19 1764206387 655010531 2147428159 -1201118 123955111
            237502207 89600368 1375204727</internalNodes>
          <leafValues>
            -2.9006937146186829e-01 1.9178393483161926e-01</leafValues></_>
        <_>
          <internalNodes>
            0 -1 294 -241698894 335574963 -131052682 903888656
            -462411801 -1448018242 1970756698 1275156241</internalNodes>
          <leafValues>
            -3.1478497385978699e-01 1.6956128180027008e-01</leafValues></_>
        <_>
          <internalNodes>
            0 -1 564 2098548 775172084 -1090683019 1069558773
            -1124851852 1332215517 1073691924 782243152</internalNodes>
          <leafValues>
            -5.6004405021667480e-01 7.8709490597248077e-02</leafValues></_>
        <_>
          <internalNodes>
            0 -1 744 -1359732875 -1124439049 1577058301 -805535891
            -201573003 -1179650 -101024391 -1364558043</internalNodes>
          <leafValues>
            -2.8611463308334351e-01 1.7258101701736450e-01</leafValues></_>
        <_>
          <internalNodes>
            0 -1 674 -397871600 471895728 770522623 -1121400907
            -1388511312 -64685067 -1447084038 782962403</internalNodes>
          <leafValues>
            -2.6502904295921326e-01 1.9384197890758514e-01</leafValues></_>
        <_>
          <internalNodes>
            0 -1 847 -269490690 -453447948 -25235768 1232006818
            -687874156 -856705033 1436927060 -1002309638</internalNodes>
          <leafValues>
            -2.5532707571983337e-01 1.8770107626914978e-01</leafValues></_>
        <_>
          <internalNodes>
            0 -1 278 1412227600 -1255086294 1015016704 -9438311
            2105476578 -1178978305 295774362 2882234</internalNodes>
          <leafValues>
            -2.7156260609626770e-01 1.7979924380779266e-01</leafValues></_>
        <_>
          <internalNodes>
            0 -1 590 -293654749 787939239 -285382796 -286494785
            -1799900299 -285640707 -1241573567 -391448580</internalNodes>
          <leafValues>
            -2.6803702116012573e-01 1.8874321877956390e-01</leafValues></_>
        <_>
          <internalNodes>
            0 -1 840 179983413 708460543 2076131323 -1208340484
            1709009404 -8556684 -34095636 579870202</internalNodes>
          <leafValues>
            -3.3306306600570679e-01 1.4691311120986938e-01</leafValues></_>
        <_>
          <internalNodes>
            0 -1 682 -956301804 1078124400 -553715345 1900078 -210649792
            -1873691372 -1770689536 1680701279</internalNodes>
          <leafValues>
            -4.4230887293815613e-01 1.0278174281120300e-01</leafValues></_>
        <_>
          <internalNodes>
            0 -1 698 1346888622 1365153651 -2123563574 -37896292
            1288701404 -1124149251 -67612758 -343417917</internalNodes>
          <leafValues>
            -1.7044675350189209e-01 2.8082224726676941e-01</leafValues></_>
        <_>
          <internalNodes>
            0 -1 410 35796789 712835068 -547651681 -1409390691 267893589
            -42012677 -1208068763 251161828</internalNodes>
          <leafValues>
            -4.6867984533309937e-01 1.0049726068973541e-01</leafValues></_>
        <_>
          <internalNodes>
            0 -1 91 -270581905 -228491281 1957363207 -1071612302
            2120675117 1056269413 2093651453 -64882154</internalNodes>
          <leafValues>
            -2.2696456313133240e-01 2.0893591642379761e-01</leafValues></_>
        <_>
          <internalNodes>
            0 -1 559 -857752560 2090904308 -1090717737 45755465
            -295395531 -130799627 528293406 708510527</internalNodes>
          <leafValues>
            -2.9020959138870239e-01 1.5608732402324677e-01</leafValues></_>
        <_>
          <internalNodes>
            0 -1 37 -391731302 410723941 -33870074 -404379126 6500688
            209012967 -35699451 -154210554</internalNodes>
          <leafValues>
            -2.6630616188049316e-01 1.6794455051422119e-01</leafValues></_>
        <_>
          <internalNodes>
            0 -1 206 788430629 1861180902 -453005321 -1561396444
            -1100012023 -285409441 -135916219 2095373712</internalNodes>
          <leafValues>
            -4.3073475360870361e-01 1.0185413062572479e-01</leafValues></_></weakClassifiers></_>
    <!-- stage 5 -->
    <_>
      <maxWeakCount>34</maxWeakCount>
      <stageThreshold>-1.3825671672821045e+00</stageThreshold>
      <weakClassifiers>
        <_>
          <internalNodes>
            0 -1 246 787415593 -546001 578759219 -1 -50483793 -1058817
            -855838737 -4353</internalNodes>
          <leafValues>
            -5.4309528321027756e-02 8.0737322568893433e-01</leafValues></_>
        <_>
          <internalNodes>
            0 -1 684 -16790025 -205 -131073 -4269 -409010179 -1537
            -21115395 -9223103</internalNodes>
          <leafValues>
            -2.2268874943256378e-01 5.9533077478408813e-01</leafValues></_>
        <_>
          <internalNodes>
            0 -1 279 -585763468 -42863184 -1262488300 -38666770
            1568014333 -9306123 -1796082242 -5</internalNodes>
          <leafValues>
            -2.9352617263793945e-01 3.9565217494964600e-01</leafValues></_>
        <_>
          <internalNodes>
            0 -1 552 -268701785 -1364656325 -135532640 -291311666
            -404750345 -306776065 -1262488066 -2049</internalNodes>
          <leafValues>
            -2.2363884747028351e-01 3.9526602625846863e-01</leafValues></_>
        <_>
          <internalNodes>
            0 -1 663 -538444066 -990578498 -545526024 1751235766
            -119607042 -1400311060 -621839366 1749745402</internalNodes>
          <leafValues>
            -3.3131286501884460e-01 2.0784743130207062e-01</leafValues></_>
        <_>
          <internalNodes>
            0 -1 42 -757338417 7389179 -1507547214 -127287561 1616339456
            540073296 -243827200 -168445318</internalNodes>
          <leafValues>
            -2.8915885090827942e-01 1.8766982853412628e-01</leafValues></_>
        <_>
          <internalNodes>
            0 -1 823 -547360161 286723093 -1343324289 70729563 -1374720
            1550605637 -1494745345 -228851841</internalNodes>
          <leafValues>
            -1.9161191582679749e-01 2.8495055437088013e-01</leafValues></_>
        <_>
          <internalNodes>
            0 -1 232 -199040624 -1653196872 -17220193 -1610872780
            1065254837 -1644382211 -1084408449 254083153</internalNodes>
          <leafValues>
            -3.2021370530128479e-01 1.7156887054443359e-01</leafValues></_>
        <_>
          <internalNodes>
            0 -1 178 -4718833 -153157665 -420 -152109474 1878521435
            -16876929 1971185108 -526378</internalNodes>
          <leafValues>
            -2.5098642706871033e-01 2.3001483082771301e-01</leafValues></_>
        <_>
          <internalNodes>
            0 -1 382 -663688976 -1684268638 1575778100 -536887504
            1052469181 -1079001095 533823162 747345058</internalNodes>
          <leafValues>
            -2.7743187546730042e-01 1.8611669540405273e-01</leafValues></_>
        <_>
          <internalNodes>
            0 -1 842 683286293 754892383 -1344372801 988970975
            -1627464099 -34111521 -360710434 -1363484930</internalNodes>
          <leafValues>
            -2.4157793819904327e-01 1.9586281478404999e-01</leafValues></_>
        <_>
          <internalNodes>
            0 -1 261 -2105650 -626327598 -18960435 -271593725 -66240
            -187377404 1794502487 1246454599</internalNodes>
          <leafValues>
            -2.9657372832298279e-01 1.7333179712295532e-01</leafValues></_>
        <_>
          <internalNodes>
            0 -1 126 -398067855 -524847012 1738865429 -1195204129
            -169427609 -1141739759 -15270435 -18678787</internalNodes>
          <leafValues>
            -2.0147652924060822e-01 2.3351839184761047e-01</leafValues></_>
        <_>
          <internalNodes>
            0 -1 602 207622516 800882535 -1074053121 1064992752
            2025732085 -16932995 -4321439 784872052</internalNodes>
          <leafValues>
            -4.5236915349960327e-01 1.0824596136808395e-01</leafValues></_>
        <_>
          <internalNodes>
            0 -1 59 -741092289 2016935931 788512572 -803160261
            2130669324 993880699 -1210676164 -44570093</internalNodes>
          <leafValues>
            -2.0006658136844635e-01 2.4249131977558136e-01</leafValues></_>
        <_>
          <internalNodes>
            0 -1 773 1718934676 -1150021953 -822084483 -604719557
            1911565540 -84723468 -1407174584 707007811</internalNodes>
          <leafValues>
            -3.2132914662361145e-01 1.4109179377555847e-01</leafValues></_>
        <_>
          <internalNodes>
            0 -1 896 -138416213 -278069249 -285746655 2041900958
            -687868421 1238892403 -1040714512 -789053449</internalNodes>
          <leafValues>
            -1.8093866109848022e-01 2.5081965327262878e-01</leafValues></_>
        <_>
          <internalNodes>
            0 -1 566 587079957 586832759 725516157 -1367541857 804730741
            -1078984881 2146923860 515662608</internalNodes>
          <leafValues>
            -4.8580250144004822e-01 9.2437766492366791e-02</leafValues></_>
        <_>
          <internalNodes>
            0 -1 2 -275776749 -270484438 -71307737 -139481302 58685435
            1321707994 626991955 -705701899</internalNodes>
          <leafValues>
            -2.0418895781040192e-01 2.2342830896377563e-01</leafValues></_>
        <_>
          <internalNodes>
            0 -1 618 -689518422 734314400 -1361432599 502621977
            -1183702284 -1178787841 779620239 200268667</internalNodes>
          <leafValues>
            -2.5596952438354492e-01 1.8312498927116394e-01</leafValues></_>
        <_>
          <internalNodes>
            0 -1 226 678567984 1660644980 258871227 -965235841
            2112225051 -1882718860 -1754431183 -1890276704</internalNodes>
          <leafValues>
            -2.8445446491241455e-01 1.5404540300369263e-01</leafValues></_>
        <_>
          <internalNodes>
            0 -1 670 -25362947 -67608579 -268500993 -537268305
            -1075974949 -65537 -1140916289 -1074053697</internalNodes>
          <leafValues>
            -1.0934244096279144e-01 3.9844781160354614e-01</leafValues></_>
        <_>
          <internalNodes>
            0 -1 857 -126354549 252426575 -134283528 1928003366 -8451
            -1648492689 -159780124 1156642759</internalNodes>
          <leafValues>
            -3.0562859773635864e-01 1.5044793486595154e-01</leafValues></_>
        <_>
          <internalNodes>
            0 -1 337 -1238882764 -1120518361 -67158029 -5710349
            1073446837 -1073872897 -1359196172 770987348</internalNodes>
          <leafValues>
            -3.4327596426010132e-01 1.2235334515571594e-01</leafValues></_>
        <_>
          <internalNodes>
            0 -1 354 -1376522445 -419627025 -1644527689 2058272700
            1861746559 -1359479937 1323258932 -50661900</internalNodes>
          <leafValues>
            -2.2924506664276123e-01 1.8776041269302368e-01</leafValues></_>
        <_>
          <internalNodes>
            0 -1 152 -356569333 -142643415 -323028230 855568378
            1575959309 -134744243 536374324 1449328070</internalNodes>
          <leafValues>
            -3.4701156616210938e-01 1.2678842246532440e-01</leafValues></_>
        <_>
          <internalNodes>
            0 -1 556 -34168258 -1157714633 2147363804 -1913606530
            -27664655 -1879607003 2088603132 -1410391526</internalNodes>
          <leafValues>
            -1.7626622319221497e-01 2.4350076913833618e-01</leafValues></_>
        <_>
          <internalNodes>
            0 -1 405 1748412320 -1686991102 -939561123 -38621568
            137416148 -295697820 993353936 1869038899</internalNodes>
          <leafValues>
            -2.8766667842864990e-01 1.5273293852806091e-01</leafValues></_>
        <_>
          <internalNodes>
            0 -1 493 201460993 615808206 2130673525 681115567
            -1686274699 -17385545 1534936437 739794292</internalNodes>
          <leafValues>
            -5.8280241489410400e-01 6.6805526614189148e-02</leafValues></_>
        <_>
          <internalNodes>
            0 -1 632 -201856305 972517353 -1090909193 -201855177
            1602184511 1983674207 -134223170 -185204737</internalNodes>
          <leafValues>
            -1.5421268343925476e-01 2.7781963348388672e-01</leafValues></_>
        <_>
          <internalNodes>
            0 -1 319 1617883556 -1337920332 -145965267 427982792
            -655007340 -814908961 -390930871 438894400</internalNodes>
          <leafValues>
            -2.9040795564651489e-01 1.3810572028160095e-01</leafValues></_>
        <_>
          <internalNodes>
            0 -1 918 1685045119 -1905742600 -1361782146 -1409756202
            1291263702 -2001192712 1442675092 -858984974</internalNodes>
          <leafValues>
            -2.3140798509120941e-01 1.7784152925014496e-01</leafValues></_>
        <_>
          <internalNodes>
            0 -1 130 -1532249049 -1561677974 -1614942416 -956812118
            1734833535 134086495 402085345 1727747569</internalNodes>
          <leafValues>
            -3.5142400860786438e-01 1.1480703204870224e-01</leafValues></_>
        <_>
          <internalNodes>
            0 -1 289 -730601782 269497141 -21743972 -926925003
            1576178661 -1078872065 2130034664 -1983267495</internalNodes>
          <leafValues>
            -2.0007298886775970e-01 2.0222346484661102e-01</leafValues></_></weakClassifiers></_>
    <!-- stage 6 -->
    <_>
      <maxWeakCount>37</maxWeakCount>
      <stageThreshold>-1.2697340250015259e+00</stageThreshold>
      <weakClassifiers>
        <_>
          <internalNodes>
            0 -1 466 -1054038 1467723691 -487086046 -134219061
            -151139393 1567164302 -335545669 -67109893</internalNodes>
          <leafValues>
            -1.1176883429288864e-01 7.4623990058898926e-01</leafValues></_>
        <_>
          <internalNodes>
            0 -1 455 -8391745 -18597 -541065217 -47054889 -16781329
            -5121 -286265361 -391450917</internalNodes>
          <leafValues>
            -1.6849857568740845e-01 6.6740387678146362e-01</leafValues></_>
        <_>
          <internalNodes>
            0 -1 796 184422367 1064992767 -54595585 -1073774597
            788420862 -32913 -83894274 -1074004097</internalNodes>
          <leafValues>
            -2.7184048295021057e-01 4.0772128105163574e-01</leafValues></_>
        <_>
          <internalNodes>
            0 -1 350 -613154945 -681836944 -16779951 -537002224
            -235274241 -587958864 -572666468 -572664576</internalNodes>
          <leafValues>
            -2.6147866249084473e-01 3.1673637032508850e-01</leafValues></_>
        <_>
          <internalNodes>
            0 -1 912 -1063786958 40277830 -1359065153 1087700911
            1444881207 72822643 -1216360257 -170396801</internalNodes>
          <leafValues>
            -3.0153325200080872e-01 1.8115454912185669e-01</leafValues></_>
        <_>
          <internalNodes>
            0 -1 650 -774712918 -129966350 -406913415 1543045046
            124062092 -592001 247401231 1006217215</internalNodes>
          <leafValues>
            -2.7110853791236877e-01 2.0476596057415009e-01</leafValues></_>
        <_>
          <internalNodes>
            0 -1 61 -2376353 2117205563 -20418695 805370418 1879039253
            -15204537 -1098912708 -93194154</internalNodes>
          <leafValues>
            -2.5910675525665283e-01 2.0538219809532166e-01</leafValues></_>
        <_>
          <internalNodes>
            0 -1 466 1862221639 -2102755330 -1092127265 1122500470
            2004616005 -1732198042 1417365318 1147528806</internalNodes>
          <leafValues>
            -3.4895455837249756e-01 1.4130434393882751e-01</leafValues></_>
        <_>
          <internalNodes>
            0 -1 365 -1929740943 -1359564801 -643 -1082868099
            -1074659979 -18874369 1073741821 -1347462913</internalNodes>
          <leafValues>
            -2.0064161717891693e-01 2.5154751539230347e-01</leafValues></_>
        <_>
          <internalNodes>
            0 -1 197 1343148474 997749430 -1078223289 -1217683929
            2128574203 -1347977754 1039876091 1073705885</internalNodes>
          <leafValues>
            -2.4220718443393707e-01 2.1906709671020508e-01</leafValues></_>
        <_>
          <internalNodes>
            0 -1 20 142575146 13740746 -38813 -344257881 7422276
            150973392 32788576 1153824020</internalNodes>
          <leafValues>
            -3.8404667377471924e-01 1.1290145665407181e-01</leafValues></_>
        <_>
          <internalNodes>
            0 -1 641 -55263883 -134284163 -1073741825 -1081665
            -1073987591 -257 -1075634245 -1074053185</internalNodes>
          <leafValues>
            -1.3123622536659241e-01 3.2603797316551208e-01</leafValues></_>
        <_>
          <internalNodes>
            0 -1 893 -3149905 712838015 -83955983 1652486004 805029632
            -1077970051 1425991428 1756822900</internalNodes>
          <leafValues>
            -3.8048705458641052e-01 1.1859852075576782e-01</leafValues></_>
        <_>
          <internalNodes>
            0 -1 318 -424665744 -29831435 -65737 -9372423 -25249036
            -33685505 -1887732363 672270613</internalNodes>
          <leafValues>
            -3.7080878019332886e-01 1.0583108663558960e-01</leafValues></_>
        <_>
          <internalNodes>
            0 -1 805 -6153 1937768319 -16777217 1391652861 -537006260
            2122186583 -268701716 -738722314</internalNodes>
          <leafValues>
            -1.8046802282333374e-01 2.3913165926933289e-01</leafValues></_>
        <_>
          <internalNodes>
            0 -1 837 70009908 745803596 -278657 964591615 -713288491
            -164355 -84608292 716717689</internalNodes>
          <leafValues>
            -3.3356311917304993e-01 1.2164330482482910e-01</leafValues></_>
        <_>
          <internalNodes>
            0 -1 635 -295721978 -1560608769 1324584863 -361054661
            -138471563 -598212745 -134431180 -378734608</internalNodes>
          <leafValues>
            -2.6118570566177368e-01 1.6089102625846863e-01</leafValues></_>
        <_>
          <internalNodes>
            0 -1 673 -2101547500 -1090719748 -1124435971 -1073881091
            -1128845332 -1074266129 -1115849473 1050621823</internalNodes>
          <leafValues>
            -2.4839018285274506e-01 1.8335953354835510e-01</leafValues></_>
        <_>
          <internalNodes>
            0 -1 442 -8193 -16979218 -285278369 1814888359 -13240848
            -51075532 -940524217 -31132409</internalNodes>
          <leafValues>
            -2.0239941775798798e-01 1.9837081432342529e-01</leafValues></_>
        <_>
          <internalNodes>
            0 -1 558 -54248332 -735047700 -335646799 1839886239
            -466188939 -583779468 1030074943 252249911</internalNodes>
          <leafValues>
            -2.3730850219726562e-01 1.6963964700698853e-01</leafValues></_>
        <_>
          <internalNodes>
            0 -1 181 -272633889 -5242882 -285280550 -261554518
            2130571087 -42025107 -134289724 -430442537</internalNodes>
          <leafValues>
            -2.2375740110874176e-01 1.9220571219921112e-01</leafValues></_>
        <_>
          <internalNodes>
            0 -1 927 -268440021 619666990 -1359221000 576610030
            -429916348 1702838127 1476391728 1425065911</internalNodes>
          <leafValues>
            -3.9975535869598389e-01 1.0183831304311752e-01</leafValues></_>
        <_>
          <internalNodes>
            0 -1 503 -173029108 -143558875 -269156451 -202997933
            1442824628 561278263 -310804545 -1689303514</internalNodes>
          <leafValues>
            -1.6473713517189026e-01 2.3320460319519043e-01</leafValues></_>
        <_>
          <internalNodes>
            0 -1 218 -155193694 -92377169 -328303954 -789414302
            1199391745 -110962857 -439910240 1958868838</internalNodes>
          <leafValues>
            -3.8217729330062866e-01 1.0531255602836609e-01</leafValues></_>
        <_>
          <internalNodes>
            0 -1 569 -1897789408 -1158234383 -558170451 1827057583
            -814375020 -33556623 -545825652 -133503097</internalNodes>
          <leafValues>
            -2.2762031853199005e-01 1.6913679242134094e-01</leafValues></_>
        <_>
          <internalNodes>
            0 -1 475 -197466670 -764238530 1592667948 -33687756
            233841917 -1985972317 259470666 1330078827</internalNodes>
          <leafValues>
            -2.1103259921073914e-01 1.9334568083286285e-01</leafValues></_>
        <_>
          <internalNodes>
            0 -1 67 -76025858 -813760526 -2105351 -71827552 1526589423
            220135279 1433397174 -587350133</internalNodes>
          <leafValues>
            -1.5864390134811401e-01 2.4218517541885376e-01</leafValues></_>
        <_>
          <internalNodes>
            0 -1 293 792341808 -1896336073 939146550 352221150
            1326808885 -537073155 517950836 2144230544</internalNodes>
          <leafValues>
            -4.7707119584083557e-01 8.2707948982715607e-02</leafValues></_>
        <_>
          <internalNodes>
            0 -1 409 -454623244 -419628289 -1343160321 1873758663
            1481936068 -85950541 2090249806 -1074051497</internalNodes>
          <leafValues>
            -1.5661336481571198e-01 2.4067781865596771e-01</leafValues></_>
        <_>
          <internalNodes>
            0 -1 545 -956653568 618024703 1056960021 -877664754
            -100703364 -1350603147 2004479783 1113973252</internalNodes>
          <leafValues>
            -3.1382998824119568e-01 1.2394697219133377e-01</leafValues></_>
        <_>
          <internalNodes>
            0 -1 448 204418357 217639649 2130050717 115647165 519243381
            -16864422 2111600180 739798384</internalNodes>
          <leafValues>
            -5.8065611124038696e-01 6.1797972768545151e-02</leafValues></_>
        <_>
          <internalNodes>
            0 -1 363 1819210023 604402239 -302711435 -37753073 -42545730
            -234981770 -465601088 -50332605</internalNodes>
          <leafValues>
            -1.7234617471694946e-01 2.1038301289081573e-01</leafValues></_>
        <_>
          <internalNodes>
            0 -1 434 -781065274 1387312063 1202855765 -570884233
            -973840418 -2089779334 1063047164 -1377812678</internalNodes>
          <leafValues>
            -1.6848640143871307e-01 2.1588549017906189e-01</leafValues></_>
        <_>
          <internalNodes>
            0 -1 863 -388985772 -151887881 -1092681731 -1241815177
            -294375936 -536969611 -2009423700 779230847</internalNodes>
          <leafValues>
            -2.6987171173095703e-01 1.4092937111854553e-01</leafValues></_>
        <_>
          <internalNodes>
            0 -1 83 -285741778 -1599410194 -17830810 1895559028
            2139045484 1197995999 -671089436 -989934089</internalNodes>
          <leafValues>
            -2.1060936152935028e-01 1.7205873131752014e-01</leafValues></_>
        <_>
          <internalNodes>
            0 -1 820 -311427295 790820274 -453116043 -1330709198
            -1361209930 -280046083 -1745881872 209229040</internalNodes>
          <leafValues>
            -3.1318333745002747e-01 1.1918482929468155e-01</leafValues></_>
        <_>
          <internalNodes>
            0 -1 923 -319832433 -357630230 1048497786 1965875170
            -23077425 1222614971 -1241581582 -252447753</internalNodes>
          <leafValues>
            -1.6871683299541473e-01 2.1324552595615387e-01</leafValues></_></weakClassifiers></_>
    <!-- stage 7 -->
    <_>
      <maxWeakCount>42</maxWeakCount>
      <stageThreshold>-1.2714658975601196e+00</stageThreshold>
      <weakClassifiers>
        <_>
          <internalNodes>
            0 -1 314 -2380865 -20769 -1241666917 -536902913 -44581445
            -278785 -3167557 -21845</internalNodes>
          <leafValues>
            1.1324057355523109e-02 8.1472480297088623e-01</leafValues></_>
        <_>
          <internalNodes>
            0 -1 630 -201591809 -213948001 2078368767 -7081025
            1976386815 -4367618 -67108881 -581</internalNodes>
          <leafValues>
            -1.1516755819320679e-01 7.0062553882598877e-01</leafValues></_>
        <_>
          <internalNodes>
            0 -1 460 -185151499 1069051889 -68157441 1064501147
            -37752899 -16385 -34144259 -1431765060</internalNodes>
          <leafValues>
            -2.5991237163543701e-01 3.7400636076927185e-01</leafValues></_>
        <_>
          <internalNodes>
            0 -1 346 -143132673 -250550511 861388767 -690347 -8919041
            -101452307 2105003775 -2629697</internalNodes>
          <leafValues>
            -1.3735570013523102e-01 5.2464789152145386e-01</leafValues></_>
        <_>
          <internalNodes>
            0 -1 3 -303300685 -418927446 -304127701 -35191062 112162735
            71806673 75453779 1162860279</internalNodes>
          <leafValues>
            -2.5983336567878723e-01 1.9430467486381531e-01</leafValues></_>
        <_>
          <internalNodes>
            0 -1 702 -486539521 2110094070 -1106053126 1831007794
            -860558854 -1997230764 -169549825 -299827238</internalNodes>
          <leafValues>
            -2.2684073448181152e-01 2.2181621193885803e-01</leafValues></_>
        <_>
          <internalNodes>
            0 -1 79 -60563646 -177115484 -1074135438 -1074405390
            356874064 -76220556 -696983692 1878482064</internalNodes>
          <leafValues>
            -3.4491005539894104e-01 1.2671189010143280e-01</leafValues></_>
        <_>
          <internalNodes>
            0 -1 585 -289700063 -1497698305 -22041426 -1464213658
            -469795019 -805847187 -33560796 -67108901</internalNodes>
          <leafValues>
            -2.3315130174160004e-01 1.9884760677814484e-01</leafValues></_>
        <_>
          <internalNodes>
            0 -1 314 -2009041824 171036608 1568571223 557338539
            -65682129 -571805962 903863047 1259954012</internalNodes>
          <leafValues>
            -2.5522223114967346e-01 1.6913740336894989e-01</leafValues></_>
        <_>
          <internalNodes>
            0 -1 745 -203428523 -75596033 -16842753 -10065665 -13526351
            -168076 -17793719 -69266049</internalNodes>
          <leafValues>
            -1.2856911122798920e-01 3.1310206651687622e-01</leafValues></_>
        <_>
          <internalNodes>
            0 -1 601 205528084 -1094959504 1073594331 1065121661
            787759101 -9502722 -1141876807 784073744</internalNodes>
          <leafValues>
            -3.6862504482269287e-01 1.1191492527723312e-01</leafValues></_>
        <_>
          <internalNodes>
            0 -1 839 -644877790 2286134 -1344344283 -1527988721
            527496626 -1181240331 -1090660680 -645465458</internalNodes>
          <leafValues>
            -2.3966895043849945e-01 1.6194184124469757e-01</leafValues></_>
        <_>
          <internalNodes>
            0 -1 901 -394539875 1901272423 -1429377793 16236287 -2304
            1530887767 1178974856 305593431</internalNodes>
          <leafValues>
            -2.5410753488540649e-01 1.5184509754180908e-01</leafValues></_>
        <_>
          <internalNodes>
            0 -1 204 -427827713 -291569729 -1572993 -59835524 -889339553
            -17 1203697143 -486604812</internalNodes>
          <leafValues>
            -1.8199038505554199e-01 2.1646651625633240e-01</leafValues></_>
        <_>
          <internalNodes>
            0 -1 338 2070790688 288367906 -153335684 -580409364
            926160623 -1199077450 477213195 137336630</internalNodes>
          <leafValues>
            -2.7486425638198853e-01 1.5489472448825836e-01</leafValues></_>
        <_>
          <internalNodes>
            0 -1 182 -1157628530 -17092993 -336609740 1660614698
            -1342472384 -1355284642 -269257152 1892859366</internalNodes>
          <leafValues>
            -3.5540455579757690e-01 1.0621461272239685e-01</leafValues></_>
        <_>
          <internalNodes>
            0 -1 194 -22876176 -1792338 -1074798605 -537358351
            -2038710351 -147988 -23167525 -1384444577</internalNodes>
          <leafValues>
            -1.3174082338809967e-01 2.9816585779190063e-01</leafValues></_>
        <_>
          <internalNodes>
            0 -1 669 -872003888 -25949060 -1627480649 796397260
            -261349663 -101946556 -1662173249 187367967</internalNodes>
          <leafValues>
            -2.2567051649093628e-01 1.5764871239662170e-01</leafValues></_>
        <_>
          <internalNodes>
            0 -1 804 -1495398347 -277135521 -1091608833 2055176063
            2080273413 -32909 -1610686467 -25371660</internalNodes>
          <leafValues>
            -2.1467466652393341e-01 1.8399183452129364e-01</leafValues></_>
        <_>
          <internalNodes>
            0 -1 803 -67108957 -928350449 -203733486 1110896 -420483954
            517929756 -403447616 1087766502</internalNodes>
          <leafValues>
            -4.1278642416000366e-01 9.0803876519203186e-02</leafValues></_>
        <_>
          <internalNodes>
            0 -1 102 1313406769 1280495607 -1343475921 745275567
            -396308621 -1670271051 -268960909 -50693249</internalNodes>
          <leafValues>
            -2.0081159472465515e-01 1.7369470000267029e-01</leafValues></_>
        <_>
          <internalNodes>
            0 -1 225 655099832 -1292457438 2146922619 547762762
            1979405628 -1075020801 1555312854 202646732</internalNodes>
          <leafValues>
            -4.2989304661750793e-01 7.8144207596778870e-02</leafValues></_>
        <_>
          <internalNodes>
            0 -1 111 1269744602 1454304938 -154522331 -851450 491548642
            -1176542283 -539661485 -270639845</internalNodes>
          <leafValues>
            -1.8724669516086578e-01 1.9179002940654755e-01</leafValues></_>
        <_>
          <internalNodes>
            0 -1 476 -311108136 1450196981 2145269616 1278248242
            1148304624 2096128507 -9134750 267330823</internalNodes>
          <leafValues>
            -2.7594643831253052e-01 1.3285320997238159e-01</leafValues></_>
        <_>
          <internalNodes>
            0 -1 595 -226574955 -561240904 -1275215873 -1613545731
            -520814603 -688267 -8781829 -1073798081</internalNodes>
          <leafValues>
            -1.0806696861982346e-01 3.1345051527023315e-01</leafValues></_>
        <_>
          <internalNodes>
            0 -1 223 -1904926925 783204078 -822093903 -860029212
            267352943 -1880657953 1073168183 1282199025</internalNodes>
          <leafValues>
            -3.8522070646286011e-01 9.3812413513660431e-02</leafValues></_>
        <_>
          <internalNodes>
            0 -1 693 1362666442 294235033 251476800 1060252246
            -228244524 956177407 -25884546 2068464333</internalNodes>
          <leafValues>
            -2.5373584032058716e-01 1.3182194530963898e-01</leafValues></_>
        <_>
          <internalNodes>
            0 -1 848 -403969066 1877868228 -1161822948 167837296
            -302021122 83230551 -163068304 -255328345</internalNodes>
          <leafValues>
            -2.5317981839179993e-01 1.4226292073726654e-01</leafValues></_>
        <_>
          <internalNodes>
            0 -1 794 213536504 1022324015 -21564418 -1343047434
            -151054019 -1082130433 -287383875 741373428</internalNodes>
          <leafValues>
            -3.2674324512481689e-01 9.9706865847110748e-02</leafValues></_>
        <_>
          <internalNodes>
            0 -1 310 -1397313645 -2013335937 -536871683 -1359128083
            -1343094789 -1073752065 519273327 -1355064015</internalNodes>
          <leafValues>
            -1.7962853610515594e-01 2.0106849074363708e-01</leafValues></_>
        <_>
          <internalNodes>
            0 -1 66 -335609882 -655163412 798621671 -370287633
            -687865868 -188547338 -201599153 1734344543</internalNodes>
          <leafValues>
            -2.1729624271392822e-01 1.6004477441310883e-01</leafValues></_>
        <_>
          <internalNodes>
            0 -1 116 794233671 -29626453 1600552566 889225011
            -1124248120 -1363961187 -1249928004 -620700302</internalNodes>
          <leafValues>
            -1.9664540886878967e-01 1.8149030208587646e-01</leafValues></_>
        <_>
          <internalNodes>
            0 -1 173 1785097264 317473522 -282188325 -1646983539
            781067828 -1210213447 1874427199 451704403</internalNodes>
          <leafValues>
            -3.0617308616638184e-01 1.1033911257982254e-01</leafValues></_>
        <_>
          <internalNodes>
            0 -1 583 1361046222 434450804 788327963 528070369 -402731908
            -1151052303 -125968520 -60819470</internalNodes>
          <leafValues>
            -1.4793129265308380e-01 2.3353174328804016e-01</leafValues></_>
        <_>
          <internalNodes>
            0 -1 414 1213530130 271902964 -1887572132 348447318
            -278022864 -606309 -541720664 1144901770</internalNodes>
          <leafValues>
            -2.7811193466186523e-01 1.2293808907270432e-01</leafValues></_>
        <_>
          <internalNodes>
            0 -1 57 -353522418 -2135950673 -205017566 553021106
            1577025381 1348631606 -152768912 1684274546</internalNodes>
          <leafValues>
            -5.9002673625946045e-01 5.6726735085248947e-02</leafValues></_>
        <_>
          <internalNodes>
            0 -1 353 -1901609710 -1502941386 -8391760 -285853296
            377335677 -16842753 1979316213 -51380748</internalNodes>
          <leafValues>
            -1.9599565863609314e-01 1.7288877069950104e-01</leafValues></_>
        <_>
          <internalNodes>
            0 -1 787 -1942992880 -1996825089 -16859173 -302112833
            1869627061 -16777249 -1896063436 774905205</internalNodes>
          <leafValues>
            -4.6044716238975525e-01 7.3221072554588318e-02</leafValues></_>
        <_>
          <internalNodes>
            0 -1 851 -1159807275 682254246 -17891660 182910842
            -1627412924 -545423457 1056920596 953744864</internalNodes>
          <leafValues>
            -4.0405049920082092e-01 7.6111845672130585e-02</leafValues></_>
        <_>
          <internalNodes>
            0 -1 463 -648287497 273149427 -151781635 -684856578
            1415907251 1412902695 1433008777 -244851970</internalNodes>
          <leafValues>
            -1.0612183064222336e-01 3.0517843365669250e-01</leafValues></_>
        <_>
          <internalNodes>
            0 -1 12 2056924722 167292908 2120179503 237963071 121968434
            784232443 -293669852 2135183077</internalNodes>
          <leafValues>
            -3.2590693235397339e-01 1.0167318582534790e-01</leafValues></_>
        <_>
          <internalNodes>
            0 -1 121 -297814465 -292884506 1140716922 -531270 787458811
            -1922109570 1472197811 -112208577</internalNodes>
          <leafValues>
            -1.4540280401706696e-01 2.1900106966495514e-01</leafValues></_></weakClassifiers></_>
    <!-- stage 8 -->
    <_>
      <maxWeakCount>47</maxWeakCount>
      <stageThreshold>-1.2120393514633179e+00</stageThreshold>
      <weakClassifiers>
        <_>
          <internalNodes>
            0 -1 376 -35652658 -270354 1909769166 -582213426 -137499668
            -1409290258 -11666484 -3147124</internalNodes>
          <leafValues>
            -9.1797649860382080e-02 7.2939413785934448e-01</leafValues></_>
        <_>
          <internalNodes>
            0 -1 245 1362358783 286521139 -1110474755 -2097153 -17828865
            -1074806785 -570426145 -1041</internalNodes>
          <leafValues>
            -1.5042813122272491e-01 6.5621817111968994e-01</leafValues></_>
        <_>
          <internalNodes>
            0 -1 695 -21565713 -613224542 -1224808449 -2031870
            -831348737 -1090359505 -2105345 -11043001</internalNodes>
          <leafValues>
            -1.6141813993453979e-01 5.4120558500289917e-01</leafValues></_>
        <_>
          <internalNodes>
            0 -1 613 -155255984 -186634393 -68239361 1862203647 -13515
            -1073741833 -33554640 -4233</internalNodes>
          <leafValues>
            -2.5324466824531555e-01 2.8826990723609924e-01</leafValues></_>
        <_>
          <internalNodes>
            0 -1 678 -537665665 659812157 -274825217 284158891
            -363413643 913598021 -623813 -71313989</internalNodes>
          <leafValues>
            -2.4251642823219299e-01 1.9943466782569885e-01</leafValues></_>
        <_>
          <internalNodes>
            0 -1 175 -752878082 -606081034 -4259910 -398850 1300098996
            -1101773456 535887864 -2624638</internalNodes>
          <leafValues>
            -1.8479748070240021e-01 2.4065922200679779e-01</leafValues></_>
        <_>
          <internalNodes>
            0 -1 376 1662543921 -1461530913 -70944199 586642405
            -1250544873 368999351 -203029757 280265538</internalNodes>
          <leafValues>
            -2.7951341867446899e-01 1.6781893372535706e-01</leafValues></_>
        <_>
          <internalNodes>
            0 -1 662 1430781386 292646847 669990703 367247350 -722968323
            -587401251 -293732373 -1410334805</internalNodes>
          <leafValues>
            -1.4533697068691254e-01 2.9561975598335266e-01</leafValues></_>
        <_>
          <internalNodes>
            0 -1 245 -1075900928 -285709316 751714210 1736506930
            1685535589 1983051732 880768825 148238652</internalNodes>
          <leafValues>
            -2.8769254684448242e-01 1.2808459997177124e-01</leafValues></_>
        <_>
          <internalNodes>
            0 -1 270 -334307471 -205061 2147483639 -843153987
            -1350909955 -3276801 -1678246419 -1073803843</internalNodes>
          <leafValues>
            -1.4840421080589294e-01 2.7105689048767090e-01</leafValues></_>
        <_>
          <internalNodes>
            0 -1 877 -276831061 -2035620526 -1410650628 -978794968
            1744816110 -822580939 1150633424 1280101600</internalNodes>
          <leafValues>
            -3.4836193919181824e-01 1.0739474743604660e-01</leafValues></_>
        <_>
          <internalNodes>
            0 -1 763 -736310224 -13616336 -1107304513 -1074298896
            -1631649825 -98325 -1149305889 -1347469941</internalNodes>
          <leafValues>
            -1.3382883369922638e-01 2.7840989828109741e-01</leafValues></_>
        <_>
          <internalNodes>
            0 -1 468 -211291390 65631206 1471624401 -973740048
            1451141119 87425020 -445156111 1206910966</internalNodes>
          <leafValues>
            -2.6731306314468384e-01 1.4011368155479431e-01</leafValues></_>
        <_>
          <internalNodes>
            0 -1 65 -67114189 1937768055 -991224580 1926495984 -11010196
            -8599681 1709174780 -260833801</internalNodes>
          <leafValues>
            -1.8611399829387665e-01 2.0124301314353943e-01</leafValues></_>
        <_>
          <internalNodes>
            0 -1 864 754080852 -244273 2030041083 1500397562 -1225784688
            -55578761 -1473233752 706879067</internalNodes>
          <leafValues>
            -3.1209999322891235e-01 1.1693797260522842e-01</leafValues></_>
        <_>
          <internalNodes>
            0 -1 799 1089621087 2084261231 -17039361 2053013495
            -595699460 -50864129 -1393107491 -1157963998</internalNodes>
          <leafValues>
            -1.6303634643554688e-01 2.1958461403846741e-01</leafValues></_>
        <_>
          <internalNodes>
            0 -1 411 787951153 -2066038795 2136702847 246185979
            1790704976 -304107754 2130558277 184090320</internalNodes>
          <leafValues>
            -3.7147209048271179e-01 9.7637847065925598e-02</leafValues></_>
        <_>
          <internalNodes>
            0 -1 26 1664068138 176925227 2143237921 -1353749911
            1145504550 141510614 98858496 1165226438</internalNodes>
          <leafValues>
            -3.0073419213294983e-01 1.1612840741872787e-01</leafValues></_>
        <_>
          <internalNodes>
            0 -1 900 -50608523 -111444229 2121777151 309788671
            -813703412 -9015972 -69634 -92869707</internalNodes>
          <leafValues>
            -1.5446500480175018e-01 2.2440338134765625e-01</leafValues></_>
        <_>
          <internalNodes>
            0 -1 629 -1029717268 888209387 -1258296286 -613021022
            1684883215 377256575 1987967084 1350039043</internalNodes>
          <leafValues>
            -2.7093902230262756e-01 1.2527444958686829e-01</leafValues></_>
        <_>
          <internalNodes>
            0 -1 322 -193676364 -2064136203 -1586151619 -286392329
            1687025661 -1185480842 -1381030635 -1092100366</internalNodes>
          <leafValues>
            -1.8877153098583221e-01 1.8692687153816223e-01</leafValues></_>
        <_>
          <internalNodes>
            0 -1 109 -972927070 2111892206 -298947806 -578412032
            793161602 1332707318 -10780709 -573738913</internalNodes>
          <leafValues>
            -1.4594465494155884e-01 2.3110882937908173e-01</leafValues></_>
        <_>
          <internalNodes>
            0 -1 381 -1570051216 1215692788 -857411755 -1930625155
            1759289398 -1915356168 -311103659 1971344308</internalNodes>
          <leafValues>
            -3.8982081413269043e-01 8.5761830210685730e-02</leafValues></_>
        <_>
          <internalNodes>
            0 -1 147 -294663353 720224247 -692062498 -521470218
            -604011178 -682721313 2013165172 1174787508</internalNodes>
          <leafValues>
            -4.5909285545349121e-01 7.0237413048744202e-02</leafValues></_>
        <_>
          <internalNodes>
            0 -1 570 255534288 272887784 448786931 163575483 2025273856
            -805307305 115219983 414770450</internalNodes>
          <leafValues>
            -3.1831949949264526e-01 1.0276955366134644e-01</leafValues></_>
        <_>
          <internalNodes>
            0 -1 533 -665831856 -2351107 2012610559 -1082442243
            -1258310255 -1509412 846229309 -1884607693</internalNodes>
          <leafValues>
            -1.4797762036323547e-01 2.2715590894222260e-01</leafValues></_>
        <_>
          <internalNodes>
            0 -1 784 1442782218 -2060230740 -1544693680 64228
            -2024128850 -1985557868 -696396656 1347281243</internalNodes>
          <leafValues>
            -3.2405540347099304e-01 1.0282671451568604e-01</leafValues></_>
        <_>
          <internalNodes>
            0 -1 605 2101044 645689205 -1090716675 1050081275 1874214773
            -537008161 930381172 716193652</internalNodes>
          <leafValues>
            -4.8919492959976196e-01 6.2454435974359512e-02</leafValues></_>
        <_>
          <internalNodes>
            0 -1 334 1546901046 -584001680 -713105857 -105071335 -133673
            -1629110825 -948873477 -588588611</internalNodes>
          <leafValues>
            -1.7841839790344238e-01 1.8538239598274231e-01</leafValues></_>
        <_>
          <internalNodes>
            0 -1 792 -1970525068 -1909055687 -1417711625 1823780586
            -1426228947 -26053163 -268583489 250612993</internalNodes>
          <leafValues>
            -3.5581666231155396e-01 8.8012203574180603e-02</leafValues></_>
        <_>
          <internalNodes>
            0 -1 843 -1360548048 -966336594 794791421 737766832
            1157592567 -1880294922 -860503824 -1070467078</internalNodes>
          <leafValues>
            -2.1406929194927216e-01 1.5537749230861664e-01</leafValues></_>
        <_>
          <internalNodes>
            0 -1 603 -1073425360 202917904 748662429 216524025
            2053236400 -1087242347 762080032 187369875</internalNodes>
          <leafValues>
            -2.9487994313240051e-01 1.0507097840309143e-01</leafValues></_>
        <_>
          <internalNodes>
            0 -1 186 -425412171 -424271889 2113797983 -2021871635
            -1382027499 -822345729 1734702845 -1705017886</internalNodes>
          <leafValues>
            -1.6332961618900299e-01 2.0322877168655396e-01</leafValues></_>
        <_>
          <internalNodes>
            0 -1 384 1432998064 -782383851 -335727245 -572654127
            -1487139724 -1930995201 947907017 411950503</internalNodes>
          <leafValues>
            -1.9604912400245667e-01 1.6357737779617310e-01</leafValues></_>
        <_>
          <internalNodes>
            0 -1 300 -1368436959 -290820114 -1883439146 -26575378
            -563134653 -277402754 2105528821 -335905292</internalNodes>
          <leafValues>
            -2.0701208710670471e-01 1.6328030824661255e-01</leafValues></_>
        <_>
          <internalNodes>
            0 -1 838 414105600 251170492 785096588 764780169 -2131491144
            -1145081201 -1469466232 124306827</internalNodes>
          <leafValues>
            -2.8231844305992126e-01 1.1061454564332962e-01</leafValues></_>
        <_>
          <internalNodes>
            0 -1 417 179842132 754876885 -928771 247084871 2037956388
            -550568977 2104008117 136858641</internalNodes>
          <leafValues>
            -5.7555437088012695e-01 5.1541849970817566e-02</leafValues></_>
        <_>
          <internalNodes>
            0 -1 145 -288363782 -12935262 -268496929 -581146370
            -134495056 -1091568018 2147188409 -38277140</internalNodes>
          <leafValues>
            -1.2475658953189850e-01 2.6034024357795715e-01</leafValues></_>
        <_>
          <internalNodes>
            0 -1 217 -201331181 2101275503 -190383592 1920351819
            1291837248 504876855 1895067664 1078459222</internalNodes>
          <leafValues>
            -3.5977935791015625e-01 9.1984257102012634e-02</leafValues></_>
        <_>
          <internalNodes>
            0 -1 677 -590738139 -609042625 -2146321 -553730177
            -123778667 -164867 1826430765 -1361163263</internalNodes>
          <leafValues>
            -2.1024818718433380e-01 1.4970503747463226e-01</leafValues></_>
        <_>
          <internalNodes>
            0 -1 485 -823141192 1149025980 -1632403713 619577309
            -687867532 2022996981 778345980 186489994</internalNodes>
          <leafValues>
            -2.3667697608470917e-01 1.3572715222835541e-01</leafValues></_>
        <_>
          <internalNodes>
            0 -1 931 -138710 -1389429135 -87713874 -496042160 1073733120
            1164803445 -155273676 1891005792</internalNodes>
          <leafValues>
            -3.4358915686607361e-01 9.2649728059768677e-02</leafValues></_>
        <_>
          <internalNodes>
            0 -1 661 -487077233 -542693510 -2105833753 1911405225
            1836996207 528244579 -17375236 -1252525185</internalNodes>
          <leafValues>
            -1.5629667043685913e-01 2.1925468742847443e-01</leafValues></_>
        <_>
          <internalNodes>
            0 -1 125 857882466 988455922 -1073875149 2150010 -2087514585
            -1636565121 -159940715 215850256</internalNodes>
          <leafValues>
            -3.1080424785614014e-01 9.7833164036273956e-02</leafValues></_>
        <_>
          <internalNodes>
            0 -1 30 -624965325 1488891455 -8724953 1073605675 1299711282
            486361463 -538874111 -33558542</internalNodes>
          <leafValues>
            -1.7378355562686920e-01 1.8939952552318573e-01</leafValues></_>
        <_>
          <internalNodes>
            0 -1 510 -122619152 -105112204 532626709 -71344616 -13066243
            -1141232459 -1612916819 -12888577</internalNodes>
          <leafValues>
            -1.0803816467523575e-01 2.8356721997261047e-01</leafValues></_>
        <_>
          <internalNodes>
            0 -1 369 53544858 1081208533 936653297 1883661051
            -1059527239 2029698559 1633024651 1997507212</internalNodes>
          <leafValues>
            -2.2133649885654449e-01 1.5140551328659058e-01</leafValues></_></weakClassifiers></_>
    <!-- stage 9 -->
    <_>
      <maxWeakCount>52</maxWeakCount>
      <stageThreshold>-1.3198615312576294e+00</stageThreshold>
      <weakClassifiers>
        <_>
          <internalNodes>
            0 -1 395 -471127517 -20753 601695805 -137 -942018625
            -2605089 -813891649 -1062929</internalNodes>
          <leafValues>
            -9.0784654021263123e-03 7.6667374372482300e-01</leafValues></_>
        <_>
          <internalNodes>
            0 -1 610 -2101761 -37 -268435969 -1048809 -436282369
            -16784401 -1049242121 -2100445</internalNodes>
          <leafValues>
            -1.3203662633895874e-01 6.9061052799224854e-01</leafValues></_>
        <_>
          <internalNodes>
            0 -1 389 -239084143 -705325803 -1057249 -39976961 -587347571
            -1912617575 -1996714840 -1934627153</internalNodes>
          <leafValues>
            -1.5802572667598724e-01 5.4936707019805908e-01</leafValues></_>
        <_>
          <internalNodes>
            0 -1 435 455325489 -1725792864 -168831116 -38542096
            165097193 -1392525329 637498789 -1610661395</internalNodes>
          <leafValues>
            -2.6694801449775696e-01 2.3284724354743958e-01</leafValues></_>
        <_>
          <internalNodes>
            0 -1 730 -724566130 -724242578 -1540206 -1650168086
            -267012370 -386371148 -269754453 -1995718998</internalNodes>
          <leafValues>
            -1.8577675521373749e-01 2.6207593083381653e-01</leafValues></_>
        <_>
          <internalNodes>
            0 -1 905 2130699327 307977560 796355575 33617791 2139038732
            890719245 -2033217653 -764150785</internalNodes>
          <leafValues>
            -1.8757589161396027e-01 2.3447945713996887e-01</leafValues></_>
        <_>
          <internalNodes>
            0 -1 160 -26542189 -645781906 2139061809 -302645152
            -1343377473 -21107202 -1610743809 -44161</internalNodes>
          <leafValues>
            -1.1449074745178223e-01 3.4424823522567749e-01</leafValues></_>
        <_>
          <internalNodes>
            0 -1 176 2088222039 2032914426 -1074022529 1476591338
            -64670384 -9047242 -1372435342 2134952000</internalNodes>
          <leafValues>
            -3.6103957891464233e-01 1.0320725291967392e-01</leafValues></_>
        <_>
          <internalNodes>
            0 -1 250 -210256905 -182292174 -9437250 2046296031
            -864072261 -1201512597 -998870161 -547924157</internalNodes>
          <leafValues>
            -1.2977837026119232e-01 2.7420404553413391e-01</leafValues></_>
        <_>
          <internalNodes>
            0 -1 1 -35127379 -274039052 -136061000 -545527082 939359471
            72350719 1945065461 1910240759</internalNodes>
          <leafValues>
            -2.2020241618156433e-01 1.6036553680896759e-01</leafValues></_>
        <_>
          <internalNodes>
            0 -1 567 614007569 -1404033251 -604049621 -1360261187
            -981994637 -1076904193 -625908213 -285546776</internalNodes>
          <leafValues>
            -2.0890334248542786e-01 1.5794703364372253e-01</leafValues></_>
        <_>
          <internalNodes>
            0 -1 512 -932129936 -567276960 -436277411 123488249
            -1838621100 -34697355 -1928239086 775625587</internalNodes>
          <leafValues>
            -2.8063368797302246e-01 1.2580376863479614e-01</leafValues></_>
        <_>
          <internalNodes>
            0 -1 45 -696797893 940670903 1545778787 -1191117062
            1753171036 674260821 1177894522 -92930214</internalNodes>
          <leafValues>
            -1.5619876980781555e-01 2.0798055827617645e-01</leafValues></_>
        <_>
          <internalNodes>
            0 -1 645 10755412 -1460109455 -1376288801 -1074371591
            517873148 -268632068 1039957924 251140392</internalNodes>
          <leafValues>
            -3.6166673898696899e-01 8.7756715714931488e-02</leafValues></_>
        <_>
          <internalNodes>
            0 -1 524 -135399645 -2019360910 -206084320 -138423878
            -764149874 1290794991 -167840596 -34088970</internalNodes>
          <leafValues>
            -1.2269015610218048e-01 2.6877000927925110e-01</leafValues></_>
        <_>
          <internalNodes>
            0 -1 819 -134226046 52690731 1023131088 815298546
            -1125132628 -1894085156 -185338636 1082521591</internalNodes>
          <leafValues>
            -2.9639798402786255e-01 1.0480114817619324e-01</leafValues></_>
        <_>
          <internalNodes>
            0 -1 888 -1896182676 -33606049 -1157710085 -80593421
            -134230964 -540843 -1728922980 -1433666057</internalNodes>
          <leafValues>
            -1.3222984969615936e-01 2.3437862098217010e-01</leafValues></_>
        <_>
          <internalNodes>
            0 -1 520 1935533814 403763195 -271520035 2041636770
            1442114933 -142835714 -733614850 1364050982</internalNodes>
          <leafValues>
            -1.7468661069869995e-01 1.8691502511501312e-01</leafValues></_>
        <_>
          <internalNodes>
            0 -1 498 -2004885392 -1435369876 -431161356 553245172
            -428546185 -370217094 -545982633 -1148784088</internalNodes>
          <leafValues>
            -2.2084890305995941e-01 1.3910837471485138e-01</leafValues></_>
        <_>
          <internalNodes>
            0 -1 469 -948263030 -1063977029 569307132 -537198613
            609620757 16072439 486037336 1599285047</internalNodes>
          <leafValues>
            -2.4194762110710144e-01 1.2226153910160065e-01</leafValues></_>
        <_>
          <internalNodes>
            0 -1 68 -268697617 -891634850 731840479 -1246828 1243346799
            1191160819 1995044839 -553650209</internalNodes>
          <leafValues>
            -1.7549853026866913e-01 1.7463807761669159e-01</leafValues></_>
        <_>
          <internalNodes>
            0 -1 534 674503732 523771000 -285278209 1073643257 908345309
            -1075318851 928124621 1069028724</internalNodes>
          <leafValues>
            -3.0381068587303162e-01 9.7535170614719391e-02</leafValues></_>
        <_>
          <internalNodes>
            0 -1 201 835963475 1288026098 -169608203 -991904013
            -169871745 -613711876 -1356545774 -305660957</internalNodes>
          <leafValues>
            -1.6265863180160522e-01 1.9307726621627808e-01</leafValues></_>
        <_>
          <internalNodes>
            0 -1 373 -2097930415 -357142852 -152059915 -1346732547
            -1262682511 -138941585 -537002307 783044057</internalNodes>
          <leafValues>
            -2.6945421099662781e-01 1.1459753662347794e-01</leafValues></_>
        <_>
          <internalNodes>
            0 -1 733 -731972715 -1653330113 -1359184385 -1615020162
            -957564420 -1795920033 720256170 -1950646821</internalNodes>
          <leafValues>
            -1.1934504657983780e-01 2.6103085279464722e-01</leafValues></_>
        <_>
          <internalNodes>
            0 -1 922 1879043683 1841999651 -18944324 -1560641900
            -8553131 -578322436 -136890528 1886434114</internalNodes>
          <leafValues>
            -3.4818413853645325e-01 8.6243353784084320e-02</leafValues></_>
        <_>
          <internalNodes>
            0 -1 85 -1049041 -537399297 -470816144 -789651732 -8399025
            1870509886 -1006637408 -1334343705</internalNodes>
          <leafValues>
            -1.8475289642810822e-01 1.6304692625999451e-01</leafValues></_>
        <_>
          <internalNodes>
            0 -1 683 1423280004 2748154 465452975 887422654 351994926
            527259455 1069491243 1047977010</internalNodes>
          <leafValues>
            -3.1084764003753662e-01 9.6717849373817444e-02</leafValues></_>
        <_>
          <internalNodes>
            0 -1 277 540945408 -1826194440 -233475 -64583592 -1422361307
            -16885761 928726521 216536341</internalNodes>
          <leafValues>
            -3.3488890528678894e-01 8.5235349833965302e-02</leafValues></_>
        <_>
          <internalNodes>
            0 -1 450 -996930319 -50823190 -134348865 -608207575 -684940
            -319029572 -1267867667 -1974276795</internalNodes>
          <leafValues>
            -1.8777585029602051e-01 1.6163533926010132e-01</leafValues></_>
        <_>
          <internalNodes>
            0 -1 617 812575370 280284403 -287658139 2146890137
            -2108355848 -1937883671 726007396 1479938660</internalNodes>
          <leafValues>
            -2.6372626423835754e-01 1.1764989793300629e-01</leafValues></_>
        <_>
          <internalNodes>
            0 -1 484 -128516141 2126184342 -289406991 2105122615
            967359984 -1594418955 1289213373 -604024465</internalNodes>
          <leafValues>
            -1.0548182576894760e-01 2.7178466320037842e-01</leafValues></_>
        <_>
          <internalNodes>
            0 -1 523 -385946112 104263550 1985267690 -2111655960
            1465869604 544042869 -184596032 1628927778</internalNodes>
          <leafValues>
            -4.2598089575767517e-01 7.1109190583229065e-02</leafValues></_>
        <_>
          <internalNodes>
            0 -1 44 1783951244 184582874 -472764889 1761544743
            2119512065 1431807743 -58798271 2046281186</internalNodes>
          <leafValues>
            -3.1189376115798950e-01 8.7877176702022552e-02</leafValues></_>
        <_>
          <internalNodes>
            0 -1 897 -405557441 -287113660 737663857 -744162334
            -488380229 -1730007049 -1051212396 -932063786</internalNodes>
          <leafValues>
            -1.6180443763732910e-01 1.8396574258804321e-01</leafValues></_>
        <_>
          <internalNodes>
            0 -1 110 -504713950 -2098546774 -1073780894 -1387006
            1039891614 1298654461 1962084028 1172295923</internalNodes>
          <leafValues>
            -1.9523008167743683e-01 1.4678926765918732e-01</leafValues></_>
        <_>
          <internalNodes>
            0 -1 600 -563810156 -127891713 -276882433 -1388496756
            -851694091 -218620425 1600765375 -1342228497</internalNodes>
          <leafValues>
            -1.2018164992332458e-01 2.5144937634468079e-01</leafValues></_>
        <_>
          <internalNodes>
            0 -1 360 -995111505 -85029393 -31539256 2053275549 124673620
            2104490872 1820222052 1614995028</internalNodes>
          <leafValues>
            -3.2683590054512024e-01 9.3030281364917755e-02</leafValues></_>
        <_>
          <internalNodes>
            0 -1 628 1380973338 1549713405 888590133 -1745686531
            -1136042577 -51337867 -1403740538 -277545326</internalNodes>
          <leafValues>
            -1.4286915957927704e-01 2.0475921034812927e-01</leafValues></_>
        <_>
          <internalNodes>
            0 -1 713 -420016621 -1513013713 184085887 -17444883
            2111712565 -44057269 -982090127 1815673904</internalNodes>
          <leafValues>
            -3.2182833552360535e-01 9.6930727362632751e-02</leafValues></_>
        <_>
          <internalNodes>
            0 -1 29 1921231867 1409125098 -402773014 1441426345
            358078373 1215698806 591062437 -705247541</internalNodes>
          <leafValues>
            -1.2273857742547989e-01 2.3748095333576202e-01</leafValues></_>
        <_>
          <internalNodes>
            0 -1 778 78643812 -1394156300 2147467005 -2009305091
            83174737 -98 -1210837667 208685397</internalNodes>
          <leafValues>
            -4.7070476412773132e-01 6.1980754137039185e-02</leafValues></_>
        <_>
          <internalNodes>
            0 -1 420 -295109259 -1650573951 -4194561 -7440523 -553673227
            -268435977 -2724483 -1364492989</internalNodes>
          <leafValues>
            -1.3152387738227844e-01 2.2572204470634460e-01</leafValues></_>
        <_>
          <internalNodes>
            0 -1 224 -2110642686 -1777681342 -376213213 -796351920
            -1339464425 -1649459718 736617351 1155834960</internalNodes>
          <leafValues>
            -3.6119636893272400e-01 8.2015752792358398e-02</leafValues></_>
        <_>
          <internalNodes>
            0 -1 394 1371771530 1399976894 1055915060 -279283920
            2113295855 -1141557317 1309027759 -1535179201</internalNodes>
          <leafValues>
            -1.3341350853443146e-01 2.0989386737346649e-01</leafValues></_>
        <_>
          <internalNodes>
            0 -1 273 1345340528 -1700780280 2143169917 -1111516894
            2088660319 464828403 2028435003 2115478064</internalNodes>
          <leafValues>
            -2.6409927010536194e-01 1.1047216504812241e-01</leafValues></_>
        <_>
          <internalNodes>
            0 -1 60 -277400515 -129765377 1022000955 -1177538949
            -1115738900 -1171259949 490666204 -10357094</internalNodes>
          <leafValues>
            -1.3637071847915649e-01 2.1170338988304138e-01</leafValues></_>
        <_>
          <internalNodes>
            0 -1 254 -273436773 -289472594 -1493205549 -1359675782
            1738235661 -282395665 134038900 1145370580</internalNodes>
          <leafValues>
            -3.7130540609359741e-01 8.1640720367431641e-02</leafValues></_>
        <_>
          <internalNodes>
            0 -1 31 -1417629743 -83501613 -842684625 787392493
            1961033328 -746825731 -276926533 -25670281</internalNodes>
          <leafValues>
            -1.5926150977611542e-01 1.8064567446708679e-01</leafValues></_>
        <_>
          <internalNodes>
            0 -1 412 -919065856 -1469534531 -6543937 759474908 985038720
            -151028737 1562615621 82576008</internalNodes>
          <leafValues>
            -3.5603648424148560e-01 8.1872075796127319e-02</leafValues></_>
        <_>
          <internalNodes>
            0 -1 872 -1404371663 2121158453 -206345 -1132626443
            -1883316836 -1352761602 2142637503 -1082982433</internalNodes>
          <leafValues>
            -1.4531534910202026e-01 1.9033300876617432e-01</leafValues></_>
        <_>
          <internalNodes>
            0 -1 790 -62862180 -56679755 1040137341 -338472153
            -317449032 -1344898497 -1407047140 172449310</internalNodes>
          <leafValues>
            -1.9778525829315186e-01 1.4327502250671387e-01</leafValues></_></weakClassifiers></_>
    <!-- stage 10 -->
    <_>
      <maxWeakCount>60</maxWeakCount>
      <stageThreshold>-1.3416525125503540e+00</stageThreshold>
      <weakClassifiers>
        <_>
          <internalNodes>
            0 -1 383 -582091826 -1613496733 285236172 1435357898
            -41943313 -1210324050 -352208248 -3151222</internalNodes>
          <leafValues>
            -5.7442169636487961e-02 7.2007375955581665e-01</leafValues></_>
        <_>
          <internalNodes>
            0 -1 467 -206048341 61076391 838857463 -203425793 -402668897
            62651047 -721946641 -4196353</internalNodes>
          <leafValues>
            -2.2106046974658966e-01 4.9223053455352783e-01</leafValues></_>
        <_>
          <internalNodes>
            0 -1 625 -613942577 -642519051 117354463 -585954814
            -500048385 -886943901 -2622977 -11047081</internalNodes>
          <leafValues>
            -1.6888584196567535e-01 5.1271998882293701e-01</leafValues></_>
        <_>
          <internalNodes>
            0 -1 775 -151001900 -50331937 -16777537 -35651797 -118254192
            -59449940 -1529313144 -346063109</internalNodes>
          <leafValues>
            -1.7133004963397980e-01 3.6742553114891052e-01</leafValues></_>
        <_>
          <internalNodes>
            0 -1 686 -387060558 -990053156 -17186825 -329715777
            -659241800 -990349330 -594161221 -591398917</internalNodes>
          <leafValues>
            -2.9106676578521729e-01 1.4208813011646271e-01</leafValues></_>
        <_>
          <internalNodes>
            0 -1 295 -210243201 -143174093 -1627693321 -41959427
            -604129353 -835496156 -587377468 -576726896</internalNodes>
          <leafValues>
            -1.8248036503791809e-01 2.2870901226997375e-01</leafValues></_>
        <_>
          <internalNodes>
            0 -1 383 230436403 1123217106 80547593 -1493654131
            1973364248 1341346388 395724135 272118509</internalNodes>
          <leafValues>
            -2.7499371767044067e-01 1.5540885925292969e-01</leafValues></_>
        <_>
          <internalNodes>
            0 -1 103 -284427869 -291315030 -2098337 -874246 1606407835
            172018166 -402785281 -536905793</internalNodes>
          <leafValues>
            -1.2469609081745148e-01 2.9189229011535645e-01</leafValues></_>
        <_>
          <internalNodes>
            0 -1 860 -658772385 2001567318 -992035137 307688687
            -1879059132 1498704212 -1694978408 2019489791</internalNodes>
          <leafValues>
            -2.3727197945117950e-01 1.4948761463165283e-01</leafValues></_>
        <_>
          <internalNodes>
            0 -1 238 -223291920 -734277 -1074283787 -757481 -1137647719
            -856329 -6755331 -43009</internalNodes>
          <leafValues>
            -1.0423468053340912e-01 3.1750115752220154e-01</leafValues></_>
        <_>
          <internalNodes>
            0 -1 213 -20992369 -673218581 -18878882 1647115262 662585927
            1988067199 -858365852 1148643158</internalNodes>
          <leafValues>
            -3.4516739845275879e-01 9.2923857271671295e-02</leafValues></_>
        <_>
          <internalNodes>
            0 -1 700 -355243313 2073255894 -1574253585 1894972415
            -685814706 -1218478241 -17516305 -58995329</internalNodes>
          <leafValues>
            -1.5016323328018188e-01 2.2537550330162048e-01</leafValues></_>
        <_>
          <internalNodes>
            0 -1 536 740297780 1048063314 2013010941 1073364988
            936656848 -17875458 805115389 792331633</internalNodes>
          <leafValues>
            -3.2595905661582947e-01 9.8002977669239044e-02</leafValues></_>
        <_>
          <internalNodes>
            0 -1 230 1014031348 -926659379 645149047 -2076319155
            -159383776 -1405946332 -1384662271 -70350020</internalNodes>
          <leafValues>
            -2.0431041717529297e-01 1.4520302414894104e-01</leafValues></_>
        <_>
          <internalNodes>
            0 -1 403 -144460288 2138188310 485375927 -68999410
            1159736820 -2005532413 494228892 1296516359</internalNodes>
          <leafValues>
            -2.2221079468727112e-01 1.3515110313892365e-01</leafValues></_>
        <_>
          <internalNodes>
            0 -1 875 -1082667161 712997695 -1 2021384054 -1358963084
            -1073842857 -1090589196 -488448192</internalNodes>
          <leafValues>
            -1.9575381278991699e-01 1.6404120624065399e-01</leafValues></_>
        <_>
          <internalNodes>
            0 -1 467 149923414 -160124934 -302079448 769488627
            1601656615 -71337241 385728372 79167227</internalNodes>
          <leafValues>
            -2.0847500860691071e-01 1.4786213636398315e-01</leafValues></_>
        <_>
          <internalNodes>
            0 -1 530 -416551134 -2071802080 -571515529 -269615114
            -2059419689 234880667 1358935551 -839387657</internalNodes>
          <leafValues>
            -1.3385707139968872e-01 2.2820849716663361e-01</leafValues></_>
        <_>
          <internalNodes>
            0 -1 35 2139074527 855867387 -1210662913 2144992601
            1045568824 1073581947 1971146876 -243794366</internalNodes>
          <leafValues>
            -1.0934954136610031e-01 2.8105002641677856e-01</leafValues></_>
        <_>
          <internalNodes>
            0 -1 515 537660416 -1406128327 -287429171 143190983
            -679731968 -5178381 1047865093 712533088</internalNodes>
          <leafValues>
            -5.0798445940017700e-01 6.0976818203926086e-02</leafValues></_>
        <_>
          <internalNodes>
            0 -1 557 1090000084 -655188305 746332029 769506846
            -185156875 -1092657709 -1412088019 -1412748614</internalNodes>
          <leafValues>
            -1.4112640917301178e-01 2.1477085351943970e-01</leafValues></_>
        <_>
          <internalNodes>
            0 -1 719 1156637922 -1431656798 -908152851 -1434997023
            -1569698426 -219005338 -1791628593 1920158543</internalNodes>
          <leafValues>
            -2.3178608715534210e-01 1.3549309968948364e-01</leafValues></_>
        <_>
          <internalNodes>
            0 -1 339 1606269734 935198545 -1140936075 -240009373
            896937649 -1113645554 -1448650085 -1917190178</internalNodes>
          <leafValues>
            -1.1643481999635696e-01 2.4680683016777039e-01</leafValues></_>
        <_>
          <internalNodes>
            0 -1 268 -1405604559 111607738 -352494089 1786574804
            -1484914827 -18941450 505180503 217077108</internalNodes>
          <leafValues>
            -4.3807515501976013e-01 6.9658584892749786e-02</leafValues></_>
        <_>
          <internalNodes>
            0 -1 347 740308752 -1389381130 -308347083 -562815052
            481639225 -1678254339 134176101 1727681972</internalNodes>
          <leafValues>
            -4.0918606519699097e-01 6.7051962018013000e-02</leafValues></_>
        <_>
          <internalNodes>
            0 -1 58 -805327058 1861975596 -1705318240 1626798818
            -234935996 1618438438 -1146507692 1886780966</internalNodes>
          <leafValues>
            -3.9519545435905457e-01 6.7406274378299713e-02</leafValues></_>
        <_>
          <internalNodes>
            0 -1 275 -1506789776 -152117317 -33570953 -4673547 -33857624
            -8462387 -1073924163 -1947531987</internalNodes>
          <leafValues>
            -1.4276832342147827e-01 2.0294059813022614e-01</leafValues></_>
        <_>
          <internalNodes>
            0 -1 584 1346856330 190861044 535461345 1067869616
            1350386932 -50457350 -42112479 1858342464</internalNodes>
          <leafValues>
            -2.5175529718399048e-01 1.1161235719919205e-01</leafValues></_>
        <_>
          <internalNodes>
            0 -1 920 -478955133 -1977948254 -807506084 86966066
            1199560635 234257021 -185240159 -795744522</internalNodes>
          <leafValues>
            -1.8024975061416626e-01 1.5026517212390900e-01</leafValues></_>
        <_>
          <internalNodes>
            0 -1 764 -173024815 -771592960 -1114476048 280163906
            -1353861455 -1079250048 584401650 45086385</internalNodes>
          <leafValues>
            -2.2405332326889038e-01 1.2596191465854645e-01</leafValues></_>
        <_>
          <internalNodes>
            0 -1 361 -1974284519 -1392580681 -1344290949 -1357025285
            -1082411919 -612566041 -273205909 -1106351249</internalNodes>
          <leafValues>
            -1.6008032858371735e-01 1.7950016260147095e-01</leafValues></_>
        <_>
          <internalNodes>
            0 -1 104 1949516974 1000875918 2124370993 640551695 90517456
            -1111490691 2029352819 1898215348</internalNodes>
          <leafValues>
            -3.3539396524429321e-01 8.8564388453960419e-02</leafValues></_>
        <_>
          <internalNodes>
            0 -1 814 742280445 687365759 -1074905606 975323127
            1778257208 -1082295425 -1377895176 707809140</internalNodes>
          <leafValues>
            -3.3676326274871826e-01 8.0897107720375061e-02</leafValues></_>
        <_>
          <internalNodes>
            0 -1 643 -854288303 1609836662 -1064969 -1208156173
            -1107509251 -1115930642 -138478081 -1076166401</internalNodes>
          <leafValues>
            -9.1887190937995911e-02 3.0436676740646362e-01</leafValues></_>
        <_>
          <internalNodes>
            0 -1 578 1460642318 2017082634 -1975996481 1723186999
            2021453665 1765552900 1622142476 1175495222</internalNodes>
          <leafValues>
            -2.2742669284343719e-01 1.2867082655429840e-01</leafValues></_>
        <_>
          <internalNodes>
            0 -1 380 -546308294 -44728331 -306511887 -721945073
            2112941558 -1615077449 1282987950 -1289560146</internalNodes>
          <leafValues>
            -1.3866320252418518e-01 2.1504271030426025e-01</leafValues></_>
        <_>
          <internalNodes>
            0 -1 251 577664791 -1461559318 1941960698 -420956304
            804738855 -1367343243 1744651761 1627182576</internalNodes>
          <leafValues>
            -3.4587696194648743e-01 7.9461067914962769e-02</leafValues></_>
        <_>
          <internalNodes>
            0 -1 789 -657163084 -25668108 -1342275585 2045894651
            -398157148 -188745 -1882781685 -1358729221</internalNodes>
          <leafValues>
            -1.1523558199405670e-01 2.4067240953445435e-01</leafValues></_>
        <_>
          <internalNodes>
            0 -1 594 -1101332772 -864747748 1459077596 1145369940
            1476198192 -1852717456 758621214 168090403</internalNodes>
          <leafValues>
            -3.2048633694648743e-01 8.9580692350864410e-02</leafValues></_>
        <_>
          <internalNodes>
            0 -1 244 -452610049 -788465711 134079143 1408531479
            391452470 -2359637 -8595490 -33606629</internalNodes>
          <leafValues>
            -1.1428131908178329e-01 2.3221376538276672e-01</leafValues></_>
        <_>
          <internalNodes>
            0 -1 449 216149329 -1936932985 1606417343 775728575
            530853237 -1350698011 -153811360 777008944</internalNodes>
          <leafValues>
            -4.1809409856796265e-01 6.6145353019237518e-02</leafValues></_>
        <_>
          <internalNodes>
            0 -1 184 -10489925 -15761818 -252121990 815070996 -42119236
            -286392634 -1059861256 -260966954</internalNodes>
          <leafValues>
            -1.2925122678279877e-01 2.0695421099662781e-01</leafValues></_>
        <_>
          <internalNodes>
            0 -1 17 -134250557 -2089036049 -270207100 -67133441
            -59279361 561215329 -3150849 -202115977</internalNodes>
          <leafValues>
            -1.2067966163158417e-01 2.3989050090312958e-01</leafValues></_>
        <_>
          <internalNodes>
            0 -1 710 -1945722576 -133135344 -1354975263 263085441
            -1976114272 -1346519133 210416937 179113151</internalNodes>
          <leafValues>
            -2.3926758766174316e-01 1.1843304336071014e-01</leafValues></_>
        <_>
          <internalNodes>
